net
{
    node_size = (110 54);
    HR_realname_L = "L";
    HR_realname_Cecily = "Cecily";
    HR_realname_Fred = "Fred";
    HR_realname_A = "A";
    HR_realname_Eric = "Eric";
    HR_realname_Brian = "Brian";
    HR_realname_Henry = "Henry";
    HR_realname_Dorothy = "Dorothy";
    HR_realname_Irene = "Irene";
    HR_realname_Gwenn = "Gwenn";
    HR_realname_John = "John";
    HR_realname_K = "K";
    HR_DBN_Num_Slices = "5";
    HR_Desc = "";
    HR_OOBN_CheckConsistency = "1";
    HR_OOBN_FitExpand = "1";
    HR_Zoom_ZoomFactor = "100";
    HR_Groups_GroupColors = "";
    HR_Groups_GroupNames = "";
    HR_Groups_UserGroupsNo = "0";
    HR_Utility_Link = "63";
    HR_Probabilistic_Link = "63";
    HR_Functional_Link = "63";
    HR_Binding_Link = "63";
    HR_Information_Arc = "63";
    HR_Color_Interface = "21";
    HR_Color_Instance = "0";
    HR_Color_DiscreteFunction = "5";
    HR_Color_Function = "4";
    HR_Color_Utility = "36";
    HR_Color_Decision = "17";
    HR_Color_ContinuousChance = "48";
    HR_Color_DiscreteChance = "16";
    HR_Monitor_InitSD = "2";
    HR_Monitor_Utility_Arrange = "0";
    HR_Monitor_Mean_Variance = "1";
    HR_Monitor_Chance_Utility = "1";
    HR_Monitor_InitStates = "5";
    HR_Monitor_OpenGraph = "0";
    HR_Monitor_GraphPrecision = "100";
    HR_Monitor_AutoUpdGraph = "0";
    HR_Compile_MaxMinimalSeparators = "100000";
    HR_Compile_ApproxEpsilon = "1.0E-5";
    HR_Compile_Approximate = "0";
    HR_Compile_SaveToMemory = "0";
    HR_Compile_Compress = "0";
    HR_Compile_TriangMethod = "0";
    HR_Propagate_AutoNormal = "1";
    HR_Propagate_AutoSum = "1";
    HR_Propagate_Auto = "1";
    HR_Font_Italic = "0";
    HR_Font_Weight = "400";
    HR_Font_Size = "-12";
    HR_Font_Name = "javax.swing.plaf.FontUIResource[family=Dialog,name=Dialog,style=bold,size=12]";
    HR_Grid_GridShow = "0";
    HR_Grid_GridSnap = "0";
    HR_Grid_Y = "40";
    HR_Grid_X = "40";
    HRUNTIME_Monitor_InitStates = "5";
    HRUNTIME_Monitor_OpenGraph = "0";
    HRUNTIME_Monitor_GraphPrecision = "100";
    HRUNTIME_Monitor_AutoUpdGraph = "0";
    HRUNTIME_Compile_ApproxEpsilon = "0.00001";
    HRUNTIME_Compile_Approximate = "0";
    HRUNTIME_Compile_Compress = "0";
    HRUNTIME_Compile_TriangMethod = "0";
    HRUNTIME_Propagate_AutoNormal = "1";
    HRUNTIME_Propagate_AutoSum = "1";
    HRUNTIME_Propagate_Auto = "0";
    HRUNTIME_Font_Italic = "0";
    HRUNTIME_Font_Weight = "400";
    HRUNTIME_Font_Size = "-12";
    HRUNTIME_Font_Name = "Arial";
    HRUNTIME_Grid_GridShow = "0";
    HRUNTIME_Grid_GridSnap = "1";
    HRUNTIME_Grid_Y = "10";
    HRUNTIME_Grid_X = "10";
}

node K
{
    label = "";
    position = (594 359);
    states = ("Carrier" "Pure");
    HR_Group = "0";
    HR_Desc = "Kafka";
    HR_State_1 = "";
    HR_State_0 = "";
    HR_LinkGroup = "[G:0]";
    HR_LinkMode = "[Gwenn:0]";
}

node J
{
    label = "";
    position = (260 0);
    states = ("Sick" "Carrier" "Pure");
    HR_Group = "0";
    HR_Desc = "John";
    HR_State_2 = "";
    HR_State_1 = "";
    HR_State_0 = "";
}

node G
{
    label = "";
    position = (457 262);
    states = ("Carrier" "Pure");
    HR_Group = "0";
    HR_Desc = "Gwenn";
    HR_State_1 = "";
    HR_State_0 = "";
    HR_LinkGroup = "[I:0]";
    HR_LinkMode = "[Irene:0]";
}

node I
{
    label = "";
    position = (392 131);
    states = ("Carrier" "Pure");
    HR_Group = "0";
    HR_Desc = "Irene";
    HR_State_1 = "";
    HR_State_0 = "";
    HR_LinkGroup = "[J:0]";
    HR_LinkMode = "[John:0]";
}

node D
{
    label = "";
    position = (195 262);
    states = ("Carrier" "Pure");
    HR_Group = "0";
    HR_Desc = "Dorothy";
    HR_State_1 = "";
    HR_State_0 = "";
    HR_LinkGroup = "[H:0]";
    HR_LinkMode = "[Henry:0]";
}

node H
{
    label = "";
    position = (130 131);
    states = ("Carrier" "Pure");
    HR_Group = "0";
    HR_Desc = "Henry";
    HR_State_1 = "";
    HR_State_0 = "";
    HR_LinkGroup = "[J:0]";
    HR_LinkMode = "[John:0]";
}

node B
{
    label = "";
    position = (309 362);
    states = ("Carrier" "Pure");
    HR_Group = "0";
    HR_Desc = "Brian";
    HR_State_1 = "";
    HR_State_0 = "";
    HR_LinkGroup = "[E:0][D:0]";
    HR_LinkMode = "[Eric:0][Dorothy:0]";
}

node E
{
    label = "";
    position = (327 262);
    states = ("Carrier" "Pure");
    HR_Group = "0";
    HR_Desc = "Eric";
    HR_State_1 = "";
    HR_State_0 = "";
    HR_LinkGroup = "[I:0]";
    HR_LinkMode = "[Irene:0]";
}

node A
{
    label = "";
    position = (175 361);
    states = ("Carrier" "Pure");
    HR_Group = "0";
    HR_Desc = "Ann";
    HR_State_1 = "";
    HR_State_0 = "";
    HR_LinkGroup = "[F:0][D:0][G:0]";
    HR_LinkMode = "[Fred:0][Dorothy:0][Gwenn:0]";
}

node F
{
    label = "";
    position = (65 262);
    states = ("Carrier" "Pure");
    HR_Group = "0";
    HR_Desc = "Fred";
    HR_State_1 = "";
    HR_State_0 = "";
    HR_LinkGroup = "[H:0]";
    HR_LinkMode = "[Henry:0]";
}

node C
{
    label = "";
    position = (445 362);
    states = ("Carrier" "Pure");
    HR_Group = "0";
    HR_Desc = "Cecily";
    HR_State_1 = "";
    HR_State_0 = "";
    HR_LinkGroup = "[E:0]";
    HR_LinkMode = "[Eric:0]";
}

node L
{
    label = "";
    position = (0 391);
    states = ("Carrier" "Pure");
    HR_Group = "0";
    HR_Desc = "Ludwig";
    HR_State_1 = "";
    HR_State_0 = "";
    HR_LinkGroup = "[F:0]";
    HR_LinkMode = "[Fred:0]";
}

potential (K)
{
    data = ( 0.01 0.99 );
}

potential (J | H I)
{
    data
     = ((( 0.25 0.5 0.25 )	%  H=Carrier  I=Carrier
	 ( 0 0.5 0.5 ))	%  H=Carrier  I=Pure
	(( 0 0.5 0.5 )	%  H=Pure  I=Carrier
	 ( 0 0 1 )));	%  H=Pure  I=Pure
}

potential (G | A K)
{
    data
     = ((( 0.666667 0.333333 )	%  A=Carrier  K=Carrier
	 ( 0.5 0.5 ))	%  A=Carrier  K=Pure
	(( 0.5 0.5 )	%  A=Pure  K=Carrier
	 ( 0 1 )));	%  A=Pure  K=Pure
}

potential (I | E G)
{
    data
     = ((( 0.666667 0.333333 )	%  E=Carrier  G=Carrier
	 ( 0.5 0.5 ))	%  E=Carrier  G=Pure
	(( 0.5 0.5 )	%  E=Pure  G=Carrier
	 ( 0 1 )));	%  E=Pure  G=Pure
}

potential (D | A B)
{
    data
     = ((( 0.666667 0.333333 )	%  A=Carrier  B=Carrier
	 ( 0.5 0.5 ))	%  A=Carrier  B=Pure
	(( 0.5 0.5 )	%  A=Pure  B=Carrier
	 ( 0 1 )));	%  A=Pure  B=Pure
}

potential (H | F D)
{
    data
     = ((( 0.666667 0.333333 )	%  F=Carrier  D=Carrier
	 ( 0.5 0.5 ))	%  F=Carrier  D=Pure
	(( 0.5 0.5 )	%  F=Pure  D=Carrier
	 ( 0 1 )));	%  F=Pure  D=Pure
}

potential (B)
{
    data = ( 0.01 0.99 );
}

potential (E | B C)
{
    data
     = ((( 0.666667 0.333333 )	%  B=Carrier  C=Carrier
	 ( 0.5 0.5 ))	%  B=Carrier  C=Pure
	(( 0.5 0.5 )	%  B=Pure  C=Carrier
	 ( 0 1 )));	%  B=Pure  C=Pure
}

potential (A)
{
    data = ( 0.01 0.99 );
}

potential (F | L A)
{
    data
     = ((( 0.666667 0.333333 )	%  L=Carrier  A=Carrier
	 ( 0.5 0.5 ))	%  L=Carrier  A=Pure
	(( 0.5 0.5 )	%  L=Pure  A=Carrier
	 ( 0 1 )));	%  L=Pure  A=Pure
}

potential (C)
{
    data = ( 0.01 0.99 );
}

potential (L)
{
    data = ( 0.01 0.99 );
}
